node v2
{
   states = ( "q0" "q1" );
}
node v4
{
   states = ( "q0" "q1" );
}
node v7
{
   states = ( "q0" "q1" );
}
node v8
{
   states = ( "q0" "q1" "q2" "q3" "q4" );
}
node v12
{
   states = ( "q0" "q1" );
}
node v18
{
   states = ( "q0" "q1" );
}
node v11
{
   states = ( "q0" "q1" );
}
node v9
{
   states = ( "q0" "q1" );
}
node v3
{
   states = ( "q0" "q1" );
}
node v6
{
   states = ( "q0" "q1" "q2" "q3" "q4" );
}
node v16
{
   states = ( "q0" "q1" );
}
node v1
{
   states = ( "q0" "q1" );
}
node v5
{
   states = ( "q0" "q1" );
}
node v0
{
   states = ( "q0" "q1" );
}
node v14
{
   states = ( "q0" "q1" );
}
node v13
{
   states = ( "q0" "q1" );
}
node v10
{
   states = ( "q0" "q1" );
}
node v15
{
   states = ( "q0" "q1" );
}
node v17
{
   states = ( "q0" "q1" );
}
node v19
{
   states = ( "q0" "q1" );
}
potential ( v2 |  )
{
   data = (0.913841 0.086159);
}
potential ( v4 |  )
{
   data = (0.039547 0.960453);
}
potential ( v7 |  )
{
   data = (0.187379 0.812621);
}
potential ( v8 |  )
{
   data = (1.104557e-04 7.543803e-03 1.679822e-01 7.797634e-04 8.235837e-01);
}
potential ( v12 |  )
{
   data = (0.841991 0.158009);
}
potential ( v18 | v2 )
{
   data = ((0.102429 0.897571) (0.978663 0.021337));
}
potential ( v11 | v7 )
{
   data = ((0.122038 0.877962) (0.921488 0.078512));
}
potential ( v9 | v7 )
{
   data = ((0.953432 0.046568) (0.060833 0.939167));
}
potential ( v3 | v8 )
{
   data = ((0.146734 0.853266) (0.960365 0.039635) (0.081769 0.918231) (0.820445 0.179555) (0.136514 0.863486));
}
potential ( v6 | v8 )
{
   data = ((6.450942e-05 8.044644e-01 1.818303e-01 1.098942e-02 2.651307e-03) (9.372968e-01 3.669627e-04 2.011123e-06 1.927644e-05 6.231498e-02) (4.668481e-02 4.469148e-05 9.527402e-01 5.235706e-04 6.728861e-06) (6.154029e-02 3.060491e-03 2.907916e-05 4.338014e-07 9.353697e-01) (2.495217e-05 5.477303e-06 8.832360e-01 1.148087e-01 1.924905e-03));
}
potential ( v16 | v8 )
{
   data = ((0.925871 0.074129) (0.944728 0.055272) (0.859278 0.140722) (0.948629 0.051371) (0.020885 0.979115));
}
potential ( v1 | v18 )
{
   data = ((0.00535 0.99465) (0.90016 0.09984));
}
potential ( v5 | v6 )
{
   data = ((0.993442 0.006558) (0.901543 0.098457) (0.982037 0.017963) (0.16203  0.83797 ) (0.143168 0.856832));
}
potential ( v0 | v4 v9 v16 )
{
   data = ((((0.00531  0.99469 )   (0.100128 0.899872))  ((0.011817 0.988183)   (0.878671 0.121329))) (((0.029342 0.970658)   (0.103955 0.896045))  ((0.948746 0.051254)   (0.880858 0.119142))));
}
potential ( v14 | v1 v9 )
{
   data = (((0.067051 0.932949)  (0.873425 0.126575)) ((0.023454 0.976546)  (0.955168 0.044832)));
}
potential ( v13 | v14 )
{
   data = ((0.947643 0.052357) (0.817294 0.182706));
}
potential ( v10 | v12 v14 )
{
   data = (((0.067248 0.932752)  (0.821586 0.178414)) ((0.83274  0.16726 )  (0.96799  0.03201 )));
}
potential ( v15 | v14 )
{
   data = ((0.125895 0.874105) (0.946553 0.053447));
}
potential ( v17 | v10 )
{
   data = ((0.106136 0.893864) (0.138294 0.861706));
}
potential ( v19 | v10 )
{
   data = ((0.96966  0.03034 ) (0.077038 0.922962));
}
